tree
version=v4
num_class=1
num_tree_per_iteration=1
label_index=0
max_feature_idx=42
objective=binary sigmoid:1
feature_names=visit race anydrug ageatvis nrti nnrti pi hemoglob call genotype logvl sqrtcd4 sqrtcd8 duration durationy cd8a vla genotype3 CD4_8 APOBEC APOB APOBgr Hgb Hgbgen HgbgenSS apofer ferss aposs APOBgr2 treatment_intensity on_haart cd4_cd8_ratio_missing vload_category cd4_category time_on_study_years age_group vload_missing cd4_missing cd8_missing hemoglob_missing on_any_treatment prev_suppression visit_count
feature_infos=[-1.6601781833109732:1.67794630177863] [-0.19537845453408639:5.1182716251117704] [-0.58364691395966195:1.7133646663453683] [-2.8404047998294888:3.7766551722144159] [-1.3027084546459471:4.1096614019694417] [-0.55723527619793067:4.0442247531438307] [-0.6966458621872712:6.7309931642476082] [-3.9491346032217871:20.976222332195295] [-4.469923557600592:0.7267192471150774] [-2.7851269753956132:0.73382585778209841] [-1.2975759038344681:3.4365695433903611] [-2.8293015731120299:5.6825727923842635] [-3.7636972937815223:8.5599180785396154] [-1.3037651387709892:2.4556777674465309] [-1.3037651394289305:2.4556779283837193] [-10.945346292203904:11.615737550422164] [-6.2835228691388565:5.1349277953575507] [-4.469923557600592:0.7267192471150774] [-1.0756038176340872:102.1520173773764] [-1.3818902110320994:2.841709417790641] [-1.3910975807057646:1.8148692197897407] [-1.3910975807057646:1.8148692197897407] [-1.6517360903509144:2.8624080895137149] [-1.6600810183552419:0.61971926416511647] [-1.6524537504785666:1.7351512677104348] [-0.074303938502650504:13.458236806173176] [-0.054427936795692702:18.372917638853732] [-0.0489013865486135:20.449317914654344] [-0.047720149744792301:20.955508424596463] [-1.3196243016349158:3.9610058464974496] [-1.0171109270401475:0.9831769312616262] [-0.16391883970201401:6.1005800298360269] [-1.5872029619079355:1.9407855756094401] [-1.0018863730065255:1.6560329925987047] [-1.3037651394289305:2.4556779283837193] [-2.0199653437629208:1.3882583303494791] [-0.19158687676069139:5.2195641836631994] [-0.1628193642605712:6.1417756084566815] [-0.1636750837178817:6.109665425457476] [-1.4850061800464218:0.67339787095615977] [-1.5328303059468198:0.65238793630342939] [-0.6766072756518986:1.4779622330199136] [-1.2865635678790617:2.6494955966188325]
tree_sizes=3028 3434

Tree=0
num_leaves=27
num_cat=0
split_feature=10 10 10 10 0 0 13 0 2 13 3 8 12 42 33 0 3 0 3 3 3 3 12 3 7 0
split_gain=27580.5 265.488 849.262 449.419 1601.76 444.62 12.4834 1.16033 0.974256 2.66857 0.304183 0.44021 0.0750577 0.0511916 0.00910122 0.0461672 0.0601401 1.81899e-12 1.81899e-12 9.09495e-13 9.09495e-13 9.09495e-13 1.13687e-13 2.84217e-14 2.84217e-14 7.10543e-15
threshold=-0.83055240185634949 -0.8389904851358152 -1.0005004030278644 -1.2893941877665454 1.0359992854152451 0.69362754335477284 1.2711709071714814 0.60803460783965468 1.0000000180025095e-35 1.0484120643738444 0.87998445802019265 1.0000000180025095e-35 -0.89985224224735638 -0.056545078973469748 1.2130464316644998 -0.93263823143246982 -0.077014804900471343 -0.24789474731152561 1.833706326204827 1.7364769490359471 0.97393644045304339 1.2678095017837039 -0.35493458858539123 0.52493336161697834 1.0000000180025095e-35 1.4639639629908352
decision_type=2 2 2 2 2 2 2 2 2 2 2 2 2 2 2 2 2 2 2 2 2 2 2 2 2 2
left_child=1 2 3 18 5 -5 7 14 10 -10 12 -12 -9 -14 17 16 -16 20 -1 -2 -3 -7 -15 -4 -21 -25
right_child=19 6 23 4 -6 21 -8 8 9 -11 11 -13 13 22 15 -17 -18 -19 -20 24 -22 -23 -24 25 -26 -27
leaf_value=-0.53574139895732831 -0.76012875643022815 -0.53574139895732831 -0.76012875643022815 -0.76012875643022815 -0.76012875643022815 -0.53574139895732831 -0.59349486664924389 -0.5415412100094118 -0.57339632322805567 -0.53574139895732831 -0.53574139895732831 -0.54904320327941925 -0.53911770711086948 -0.53574139895732831 -0.53574139895732831 -0.53574139895732831 -0.5415412100094118 -0.53574139895732831 -0.53574139895732831 -0.76012875643022815 -0.53574139895732831 -0.53574139895732831 -0.53574139895732831 -0.76012875643022815 -0.76012875643022815 -0.76012875643022815
leaf_weight=802.68553328514099 2836.6125902533531 544.55318117141724 29.413421988487244 23.397040218114853 113.86559572815895 316.91934326291084 9.5232377350330335 8.6209705471992475 7.9670855104923275 11.4921937584877 10.608178853988647 15.03555428981781 14.809074878692625 15.470260828733439 9.2821564972400683 85.307438284158707 8.6209705471992475 985.23461106419563 81.329371213912964 66.848686337471008 68.511155098676682 74.257251977920532 30.940521657466892 17.157829493284229 20.723092764616013 7.1305265426635733
leaf_count=1816 12730 1232 132 105 511 717 27 20 21 26 24 36 34 35 21 193 20 2229 184 300 155 168 70 77 93 32
internal_value=-0.64838 -0.549122 -0.564967 -0.557547 -0.594026 -0.548405 -0.536399 -0.536099 -0.540961 -0.551158 -0.538883 -0.543541 -0.537173 -0.536558 -0.535771 -0.536226 -0.538534 -0.535741 -0.535741 -0.760129 -0.535741 -0.535741 -0.535741 -0.760129 -0.760129 -0.760129
internal_weight=6216.32 3292.13 1466.16 1412.45 528.439 414.574 1825.98 1816.45 114.944 19.4593 95.4846 25.6437 69.8408 61.2199 1701.51 103.211 17.9031 1598.3 884.015 2924.18 613.064 391.177 46.4108 53.7018 87.5718 24.2884
internal_count=21008 7885 3742 3501 1501 990 4143 4116 266 47 219 60 159 139 3850 234 41 3616 2000 13123 1387 885 105 241 393 109
is_linear=0
shrinkage=1


Tree=1
num_leaves=31
num_cat=0
split_feature=32 41 32 0 29 0 0 31 0 32 0 18 0 32 0 18 29 18 18 0 6 29 29 0 0 3 22 18 18 18
split_gain=13852.4 1530.03 982.717 1022.12 680.289 243.425 71.7422 56.0428 55.6909 730.557 562.902 44.3365 40.5398 43.7214 526.72 33.2929 23.8199 22.9922 21.9978 21.9895 20.9038 20.5446 16.74 16.3917 213.488 14.9733 14.0692 11.9872 10.7452 10.3371
threshold=1.0000000180025095e-35 1.0000000180025095e-35 -0.99920487232170618 0.69362754335477284 1.0000000180025095e-35 0.69362754335477284 -1.0182311669475879 1.0000000180025095e-35 1.0359992854152451 -0.99920487232170618 1.1215922209303633 0.17914983421051248 -0.93263823143246982 -0.99920487232170618 0.69362754335477284 0.8319484861646752 -1.0262559600720065 -0.68892607017543017 0.28000958759490863 -0.41908061834176163 1.0000000180025095e-35 -0.43951927694618803 1.0000000180025095e-35 1.0359992854152451 1.1215922209303633 -1.0034250502848578 -1.0874680678678355 -0.16994967942644212 -0.9823101180730518 0.8939371096740204
decision_type=2 2 2 2 2 2 2 2 2 2 2 2 2 2 2 2 2 2 2 2 2 2 2 2 2 2 2 2 2 2
left_child=1 2 5 4 6 -1 18 11 12 10 -10 17 20 -14 22 16 -8 28 21 -19 -3 -4 29 -7 -25 -20 -9 -24 -6 -15
right_child=-2 8 3 -5 7 23 15 26 9 -11 -12 -13 13 14 -16 -17 -18 19 25 -21 -22 -23 27 24 -26 -27 -28 -29 -30 -31
leaf_value=-0.073380308564949231 -0.073380308564949231 0.041221608424240587 -0.057630239717131909 -0.073431284827496293 -0.018690122371347082 0.1339443916114543 -0.0041709970088677139 0.032292125525716905 -0.073380308564949231 -0.073417110697952662 0.12623841113842749 0.10367623578892937 0.13388065637440791 0.094728284261876197 -0.073712396943509589 0.058172973564553435 0.038790375410732741 0.062832130938920525 -0.039958395282811615 0.087556829570171218 0.097359370002482543 -0.015126856136993945 0.11251727702771826 -0.073380308564949231 0.11762189056919144 0.017130888424704852 -0.051305019014308631 0.12378574727633646 0.054713311932587508 0.11951701115879042
leaf_weight=17.802255749702454 2024.2467391490936 23.570600599050522 73.495989739894867 213.10786548256874 5.2929773926734915 91.194758713245392 147.74615594744682 11.867151707410812 37.558417618274689 56.471718162298203 591.48672938346863 156.91445842385292 320.67607507109642 110.17944374680519 36.619974121451378 35.198324650526047 41.278767585754395 143.04527285695076 17.317484021186829 242.17546799778938 55.934600383043289 46.367580145597458 327.4694612622261 15.19704759120941 391.91168010234833 34.104565680027008 8.7395372986793518 845.00656968355179 85.864034354686737 68.020168334245682
leaf_count=82 9324 77 325 981 21 199 561 40 173 260 1344 398 700 291 168 108 136 431 73 660 146 182 797 70 930 121 38 1945 267 160
internal_value=0.0342763 0.0855329 0.0501647 0.0264021 0.0466758 0.108294 -0.00508753 0.0779846 0.11097 0.0988543 0.11432 0.0806251 0.115617 0.117242 0.113395 0.0135247 0.00521079 0.0730322 -0.0294521 0.0783757 0.0807164 -0.0411884 0.118468 0.114784 0.110492 -0.00209516 -0.0031624 0.120638 0.0504512 0.10419
internal_weight=6275.86 4251.62 1778.62 1262.52 1049.41 516.106 395.509 653.899 2472.99 685.517 629.045 633.292 1787.48 1707.97 1387.3 224.223 189.025 476.378 171.286 385.221 79.5052 119.864 1350.68 498.303 407.109 51.422 20.6067 1172.48 91.157 178.2
internal_count=21008 11684 5623 4342 3361 1281 1506 1855 6061 1777 1517 1777 4284 4061 3361 805 697 1379 701 1091 223 507 3193 1199 1000 194 78 2742 288 451
is_linear=0
shrinkage=0.05


end of trees

feature_importances:
visit=16
ageatvis=8
CD4_8=7
logvl=4
treatment_intensity=4
vload_category=4
sqrtcd8=2
duration=2
anydrug=1
pi=1
hemoglob=1
call=1
Hgb=1
cd4_cd8_ratio_missing=1
cd4_category=1
prev_suppression=1
visit_count=1

parameters:
[boosting: gbdt]
[objective: binary]
[metric: auc]
[tree_learner: serial]
[device_type: cpu]
[data_sample_strategy: bagging]
[data: ]
[valid: ]
[num_iterations: 500]
[learning_rate: 0.05]
[num_leaves: 31]
[num_threads: 0]
[seed: 42]
[deterministic: 0]
[force_col_wise: 0]
[force_row_wise: 0]
[histogram_pool_size: -1]
[max_depth: -1]
[min_data_in_leaf: 20]
[min_sum_hessian_in_leaf: 0.001]
[bagging_fraction: 0.8]
[pos_bagging_fraction: 1]
[neg_bagging_fraction: 1]
[bagging_freq: 5]
[bagging_seed: 400]
[bagging_by_query: 0]
[feature_fraction: 0.8]
[feature_fraction_bynode: 1]
[feature_fraction_seed: 30056]
[extra_trees: 0]
[extra_seed: 12879]
[early_stopping_round: 0]
[early_stopping_min_delta: 0]
[first_metric_only: 0]
[max_delta_step: 0]
[lambda_l1: 0]
[lambda_l2: 0]
[linear_lambda: 0]
[min_gain_to_split: 0]
[drop_rate: 0.1]
[max_drop: 50]
[skip_drop: 0.5]
[xgboost_dart_mode: 0]
[uniform_drop: 0]
[drop_seed: 17869]
[top_rate: 0.2]
[other_rate: 0.1]
[min_data_per_group: 100]
[max_cat_threshold: 32]
[cat_l2: 10]
[cat_smooth: 10]
[max_cat_to_onehot: 4]
[top_k: 20]
[monotone_constraints: ]
[monotone_constraints_method: basic]
[monotone_penalty: 0]
[feature_contri: ]
[forcedsplits_filename: ]
[refit_decay_rate: 0.9]
[cegb_tradeoff: 1]
[cegb_penalty_split: 0]
[cegb_penalty_feature_lazy: ]
[cegb_penalty_feature_coupled: ]
[path_smooth: 0]
[interaction_constraints: ]
[verbosity: -1]
[saved_feature_importance_type: 0]
[use_quantized_grad: 0]
[num_grad_quant_bins: 4]
[quant_train_renew_leaf: 0]
[stochastic_rounding: 1]
[linear_tree: 0]
[max_bin: 255]
[max_bin_by_feature: ]
[min_data_in_bin: 3]
[bin_construct_sample_cnt: 200000]
[data_random_seed: 175]
[is_enable_sparse: 1]
[enable_bundle: 1]
[use_missing: 1]
[zero_as_missing: 0]
[feature_pre_filter: 1]
[pre_partition: 0]
[two_round: 0]
[header: 0]
[label_column: ]
[weight_column: ]
[group_column: ]
[ignore_column: ]
[categorical_feature: ]
[forcedbins_filename: ]
[precise_float_parser: 0]
[parser_config_file: ]
[objective_seed: 16083]
[num_class: 1]
[is_unbalance: 1]
[scale_pos_weight: 1]
[sigmoid: 1]
[boost_from_average: 1]
[reg_sqrt: 0]
[alpha: 0.9]
[fair_c: 1]
[poisson_max_delta_step: 0.7]
[tweedie_variance_power: 1.5]
[lambdarank_truncation_level: 30]
[lambdarank_norm: 1]
[label_gain: ]
[lambdarank_position_bias_regularization: 0]
[eval_at: ]
[multi_error_top_k: 1]
[auc_mu_weights: ]
[num_machines: 1]
[local_listen_port: 12400]
[time_out: 120]
[machine_list_filename: ]
[machines: ]
[gpu_platform_id: -1]
[gpu_device_id: -1]
[gpu_use_dp: 0]
[num_gpu: 1]

end of parameters

pandas_categorical:[]
