tree
version=v4
num_class=1
num_tree_per_iteration=1
label_index=0
max_feature_idx=31
objective=binary sigmoid:1
feature_names=status visit race anydrug ageatvis nrti nnrti pi hemoglob n call genotype logvl sqrtcd4 sqrtcd8 duration durationy cd8a vla genotype3 CD4_8 APOBEC APOB APOBgr Hgb Hgbgen HgbgenSS apofer ferss aposs APOBgr2 N
feature_infos=none [-1.6574498766966781:1.6811070321827797] [-0.19537845453408639:5.1182716251117704] [-1.2401128246742286:0.8281048688147965] [-2.8480829673748747:3.7910199371683753] [-1.3059916615126117:4.1160153507946697] [-0.55933821271707485:6.3266506515845151] [-0.69876528783513281:6.7225910739080152] [-3.1245779707379309:16.281815678647604] [-1.2867733876072978:2.6610757695153877] [-4.469923557600592:0.7267192471150774] [-2.7851269753956132:0.73382585778209841] [-1.2883115748059544:3.3967835384086698] [-2.812134451676227:4.2683012423469728] [-3.7670003206346561:8.54400039510017] [-1.3043036863031101:2.471306767205788] [-1.3043036870655509:2.4713070559063577] [-8.3759808424343323:7.7775021012724643] [-3.6837006930367697:2.3990545118911859] [-4.469923557600592:0.7267192471150774] [-1.0762231370184392:102.07740720410705] [-1.3818902110320994:2.841709417790641] [-1.3910975807057646:1.8148692197897407] [-1.3910975807057646:1.8148692197897407] [-1.6517360903509144:2.8624080895137149] [-1.6600810183552419:0.61971926416511647] [-1.6524537504785666:1.7351512677104348] [-0.14785227749942059:11.812484463724084] [-0.1138051968023349:15.226415565036982] [-0.18102181443703561:13.453066839583071] [-0.1119649949538634:17.206459593830807] [-2.3331992001771837:1.2463128031039503]
tree_sizes=3391 3366 3347

Tree=0
num_leaves=31
num_cat=0
split_feature=12 12 12 12 1 1 1 15 15 14 20 4 20 14 20 20 14 17 1 4 8 13 14 27 17 8 4 18 17 4
split_gain=26689.5 417.306 1007.1 543.443 1884.69 476.025 7.06363 5.24244 2.86264 2.90985 2.43474 1.40936 1.45938 1.16877 1.65854 1.21388 1.41036 0.44388 0.304191 0.428502 0.848987 0.110351 0.25245 0.103933 0.0933413 0.0876924 0.343274 0.0853412 0.0498604 0.0587261
threshold=-0.82665853199857242 -0.83114830905836323 -0.99651764347662863 -1.2873119745521864 1.0390768573982687 0.69666076417986289 1.6383050205304792 1.2601296484867308 -1.202225055934232 -0.023587580205458546 1.1108567795030797 1.0622686277973308 1.0000000180025095e-35 -1.1208526663428435 1.2419889345994297 0.70133617705797324 -0.18838134193193776 -4.4533681507516798 0.6110567408752613 1.0118478363809544 0.046549438299643857 0.95511179080833586 -0.033308544433189945 2.7903459142204805 -3.3050858639506262 1.5243888541911494 1.3187570015241128 -1.0172324670615489 1.9583987363194633 -0.14673426203446838
decision_type=2 2 2 2 2 2 2 2 2 2 2 2 2 2 2 2 2 2 2 2 2 2 2 2 2 2 2 2 2 2
left_child=1 2 3 6 5 -5 17 18 9 10 -8 12 -10 -14 15 16 -15 -1 24 21 -21 -20 -23 28 -3 -19 -27 -13 -7 -30
right_child=-2 7 -4 4 -6 23 8 -9 11 -11 -12 27 13 14 -16 -17 -18 25 19 20 -22 22 -24 -25 -26 26 -28 -29 29 -31
leaf_value=-0.54764362171297387 -0.76012875643022815 -0.54055418156826607 -0.76012875643022815 -0.76012875643022815 -0.76012875643022815 -0.53587255226017616 -0.53911770711086959 -0.56921755559180343 -0.53574139895732831 -0.58279388498315599 -0.57339632322805556 -0.53574139895732831 -0.53574139895732831 -0.57339632322805567 -0.57141706610540322 -0.53574139895732831 -0.5468634649667814 -0.53595844923363689 -0.53574139895732831 -0.55540037033340528 -0.53574139895732831 -0.54602120039508784 -0.53574139895732831 -0.5415412100094118 -0.53580033098230218 -0.53574139895732831 -0.54704875621932003 -0.54125834937499162 -0.54154121000941191 -0.53574139895732831
leaf_weight=8.4017920494079572 2873.3793677389622 10.389000356197355 67.740002155303955 25.179671853780746 140.15941235423088 381.23325279355049 14.809074878692629 11.948803037405012 16.354275733232498 10.626431137323378 7.9670855104923239 30.940521657466888 8.3981415927410108 7.9670855104923257 12.613639444112776 10.166171401739119 13.486702978610996 691.08412727713585 57.460968792438507 10.173472315073015 11.934201210737227 9.7278144061565417 15.470260828733442 8.6209705471992475 1696.870259642601 27.8464694917202 8.8437995016574842 9.0629779994487745 8.620970547199251 8.8401490449905378
leaf_count=20 12895 24 304 113 629 863 34 31 37 29 21 70 19 21 33 23 32 1565 130 25 27 23 35 20 3840 63 21 21 20 20
internal_value=-0.64838 -0.552329 -0.571687 -0.562891 -0.600789 -0.549152 -0.538189 -0.536207 -0.548383 -0.561189 -0.551108 -0.544458 -0.548788 -0.552841 -0.556088 -0.549973 -0.556717 -0.536217 -0.53599 -0.538605 -0.544788 -0.536951 -0.53971 -0.53611 -0.535829 -0.536085 -0.538467 -0.536991 -0.535992 -0.538605
internal_weight=6216.32 3342.94 1518.96 1451.22 572.654 432.495 878.568 1823.97 142.392 33.4026 22.7762 108.99 68.986 52.6317 44.2336 31.62 21.4538 736.176 1812.03 104.767 22.1077 82.659 25.1981 407.315 1707.26 727.774 36.6903 40.0035 398.694 17.4611
internal_count=21008 8113 3978 3674 1665 1036 2009 4135 340 84 55 256 165 128 109 76 53 1669 4104 240 52 188 58 923 3864 1649 84 91 903 40
is_linear=0
shrinkage=1


Tree=1
num_leaves=31
num_cat=0
split_feature=12 12 12 12 12 15 15 8 15 15 15 15 15 31 4 15 8 15 18 31 17 4 15 10 15 10 31 17 18 10
split_gain=23429.9 333.612 866.151 439.856 838.371 335.909 301.67 13.722 11.4099 138.548 13.213 12.6345 11.4691 17.4154 6.64544 6.03019 4.96682 4.19231 3.62722 3.47728 2.16811 2.06378 1.09861 1.77796 0.851594 1.23366 0.650588 1.56672 0.648023 0.632012
threshold=-0.82665853199857242 -0.83114830905836323 -0.99651764347662863 -1.2873119745521864 -1.0094133142740762 -0.15702300625020546 1.6674053945385245 -0.80125292501852619 1.1525965170849337 0.32869468989873646 0.38947432379690988 1.5874047647827336 0.24505769020732943 -0.14074809816748898 -0.016297866848626347 1.7024704186395805 0.023927724918029303 1.2601296484867308 -1.3428558001895667 -2.2884553001361692 -0.71187159498881281 0.51640875550699883 1.5214302714214922 1.0000000180025095e-35 0.19414830513325124 1.0000000180025095e-35 -2.1989675000541409 0.97303097461676347 -1.208465202796728 -1.8716021552427573
decision_type=2 2 2 2 2 2 2 2 2 2 2 2 2 2 2 2 2 2 2 2 2 2 2 2 2 2 2 2 2 2
left_child=1 2 3 19 -5 -6 7 -7 9 12 -11 22 24 14 -14 -8 18 -3 -13 21 -18 -1 -10 -24 -9 -26 27 -21 -17 -28
right_child=-2 17 -4 4 5 6 15 8 11 10 -12 16 13 -15 -16 28 20 -19 -20 26 -22 -23 23 -25 25 -27 29 -29 -30 -31
leaf_value=0.12668578197643762 -0.073380308564949231 0.13521937038879858 -0.073380308564949231 -0.073380308564949231 -0.073380308564949231 0.062476334267627914 -0.017332200084309704 0.13426469031501639 0.13517645231547948 0.01519188388118323 -0.073380308564949231 0.056248117660015411 0.088624545081496656 0.1355068722174235 0.019297205570265864 -0.073380308564949218 0.09575536901412135 0.10602347485098207 0.1054333565490892 0.11575255724870953 0.124859671889453 0.091440957369147813 0.13547927181890448 0.11350338621187253 0.1092040999250054 0.13251464443478517 0.12760457730833924 0.13459914516404936 -0.051304512238886463 0.1343330108759401
leaf_weight=9.1814298927783984 2799.513266980648 1893.6833537220955 65.99860668182373 79.241748154163361 26.05208158493042 9.9407786726951581 8.6056225001811999 111.50418135523796 179.92365676164627 9.80208268761635 7.3814231157302848 7.4417144060134888 7.7413444519042969 14.779376626014709 6.2452542185783386 13.894443511962892 9.1264778971672076 12.375960439443586 7.5526711940765363 16.815343216061592 21.410887897014618 7.5845799744129172 20.785260379314423 16.518215030431747 8.9680084884166718 15.461139053106308 36.461305677890778 32.035438001155853 4.3697527945041648 815.54077711701393
leaf_count=21 12895 4104 304 365 120 30 34 243 390 35 34 23 21 32 22 64 24 31 19 40 49 20 45 40 22 34 82 70 19 1776
internal_value=0.0342764 0.120971 0.103906 0.111684 0.0778734 0.10149 0.110953 0.120575 0.121874 0.112247 -0.0228556 0.128538 0.126343 0.0976604 0.0576687 -0.0518396 0.10459 0.13503 0.0810227 0.133303 0.116161 0.110742 0.133557 0.125748 0.132412 0.123957 0.133723 0.128112 -0.0680986 0.134045
internal_weight=6275.94 3476.42 1570.36 1504.36 586.746 507.504 481.452 454.582 444.642 181.883 17.1835 262.759 164.699 28.766 13.9866 26.8698 45.5318 1906.06 14.9944 917.619 30.5374 16.766 217.227 37.3035 135.933 24.4291 900.853 48.8508 18.2642 852.002
internal_count=21008 8113 3978 3674 1665 1300 1180 1063 1033 443 69 590 374 75 43 117 115 4135 42 2009 73 41 475 85 299 56 1968 110 83 1858
is_linear=0
shrinkage=0.05


Tree=2
num_leaves=31
num_cat=0
split_feature=12 12 12 12 1 1 1 15 15 13 15 15 17 13 14 17 13 1 7 18 9 6 15 15 9 14 27 17 14 8
split_gain=20799 274.788 755.742 365.481 1456.23 351.772 5.25995 3.52849 1.93492 1.29547 1.206 1.72105 3.85238 0.973329 0.341117 0.316186 0.251127 0.238514 0.350065 0.894033 0.221412 0.129178 0.185061 0.111558 0.0972586 0.0956689 0.0941305 0.0732598 0.0717013 0.0696056
threshold=-0.82665853199857242 -0.83114830905836323 -0.99651764347662863 -1.2873119745521864 1.0390768573982687 0.69666076417986289 1.6383050205304792 1.2601296484867308 1.0601283513719064 0.064364774835840757 1.0305177158094818 -1.202225055934232 1.0181259065117692 0.58816332949737415 -0.91508794586725573 -4.4533681507516798 -0.40585160026430561 0.6110567408752613 1.1565738026006545 -0.67197903791791624 0.93389176327421308 1.2510268781274498 2.3203967890292287 1.5874047647827336 -0.25046298386259269 1.0348654085583806 2.5746185914410016 -3.3050858639506262 -0.43084751889404821 1.5243888541911494
decision_type=2 2 2 2 2 2 2 2 2 2 2 2 2 2 2 2 2 2 2 2 2 2 2 2 2 2 2 2 2 2
left_child=1 2 3 6 5 -5 15 17 9 16 11 12 -11 -13 -10 -1 -8 27 25 28 -15 -16 -23 24 -7 -19 -26 -3 -20 -17
right_child=-2 7 -4 4 -6 23 8 -9 14 10 -12 13 -14 20 21 29 -18 18 19 -21 -22 22 -24 -25 26 -27 -28 -29 -30 -31
leaf_value=0.11501756333934728 -0.0717260943869754 0.12052189152655718 -0.0717260943869754 -0.071909831428850199 -0.072350412154922064 0.11966951321043272 0.1147107865030834 0.097990027945955738 0.11409447161872624 0.078115998764752836 0.090125196319577022 0.10413551411081884 0.11693885698238245 0.12588200431214255 0.12520936408865632 0.12453981900676932 0.1259812214411658 0.1248606955786345 0.11940172382087388 0.10585877993228224 0.1163534657972089 0.12507450458853034 0.11520308032252527 0.12742098569787805 0.12497069922066489 0.11943743788381721 0.11987306621679897 0.12457991515466121 0.1247816011519827 0.12238665332317469
leaf_weight=9.0224308371543867 2722.8181347995996 11.189861342310904 64.190516710281372 23.922057762742043 134.10230343043804 9.2837160527706128 9.0293968319892901 12.711703479290007 13.568031117320059 11.793664515018465 9.7453876286745054 11.654741585254667 13.945919215679167 13.77283436059952 28.547436714172363 744.85069245100021 10.920072495937346 65.245150506496429 9.2906015813350695 10.483033835887907 10.938635960221289 9.0433877706527728 9.9955811351537687 42.554548680782318 377.15904413163662 9.2896889448165876 9.2787292301654798 1829.4056396484375 18.577349722385406 39.526209533214569
leaf_count=20 12895 24 304 113 629 20 20 31 30 31 24 27 31 29 60 1565 23 137 20 24 24 19 22 90 793 20 20 3840 39 84
internal_value=0.0323794 0.111713 0.0963743 0.103369 0.0727097 0.114798 0.122688 0.124248 0.114198 0.109608 0.106478 0.109044 0.0991505 0.116047 0.121088 0.124324 0.12088 0.124418 0.122188 0.118306 0.121664 0.123082 0.119892 0.124988 0.124727 0.124185 0.124848 0.124555 0.122988 0.124431
internal_weight=6295.86 3573.04 1606.85 1542.65 596.3 462.198 946.354 1966.19 152.955 91.8007 71.8512 62.1058 25.7396 36.3662 61.1544 793.399 19.9495 1953.48 112.886 38.351 24.7115 47.5864 19.039 438.276 395.721 74.5348 386.438 1840.6 27.868 784.377
internal_count=21008 8113 3978 3674 1665 1036 2009 4135 340 209 166 142 62 80 131 1669 43 4104 240 83 53 101 41 923 833 157 813 3864 59 1649
is_linear=0
shrinkage=0.05


end of trees

feature_importances:
duration=19
logvl=13
visit=8
cd8a=8
sqrtcd8=7
ageatvis=6
hemoglob=5
sqrtcd4=4
vla=4
CD4_8=4
call=3
N=3
n=2
apofer=2
nnrti=1
pi=1

parameters:
[boosting: gbdt]
[objective: binary]
[metric: auc]
[tree_learner: serial]
[device_type: cpu]
[data_sample_strategy: bagging]
[data: ]
[valid: ]
[num_iterations: 500]
[learning_rate: 0.05]
[num_leaves: 31]
[num_threads: 0]
[seed: 42]
[deterministic: 0]
[force_col_wise: 0]
[force_row_wise: 0]
[histogram_pool_size: -1]
[max_depth: -1]
[min_data_in_leaf: 20]
[min_sum_hessian_in_leaf: 0.001]
[bagging_fraction: 0.8]
[pos_bagging_fraction: 1]
[neg_bagging_fraction: 1]
[bagging_freq: 5]
[bagging_seed: 400]
[bagging_by_query: 0]
[feature_fraction: 0.8]
[feature_fraction_bynode: 1]
[feature_fraction_seed: 30056]
[extra_trees: 0]
[extra_seed: 12879]
[early_stopping_round: 0]
[early_stopping_min_delta: 0]
[first_metric_only: 0]
[max_delta_step: 0]
[lambda_l1: 0]
[lambda_l2: 0]
[linear_lambda: 0]
[min_gain_to_split: 0]
[drop_rate: 0.1]
[max_drop: 50]
[skip_drop: 0.5]
[xgboost_dart_mode: 0]
[uniform_drop: 0]
[drop_seed: 17869]
[top_rate: 0.2]
[other_rate: 0.1]
[min_data_per_group: 100]
[max_cat_threshold: 32]
[cat_l2: 10]
[cat_smooth: 10]
[max_cat_to_onehot: 4]
[top_k: 20]
[monotone_constraints: ]
[monotone_constraints_method: basic]
[monotone_penalty: 0]
[feature_contri: ]
[forcedsplits_filename: ]
[refit_decay_rate: 0.9]
[cegb_tradeoff: 1]
[cegb_penalty_split: 0]
[cegb_penalty_feature_lazy: ]
[cegb_penalty_feature_coupled: ]
[path_smooth: 0]
[interaction_constraints: ]
[verbosity: -1]
[saved_feature_importance_type: 0]
[use_quantized_grad: 0]
[num_grad_quant_bins: 4]
[quant_train_renew_leaf: 0]
[stochastic_rounding: 1]
[linear_tree: 0]
[max_bin: 255]
[max_bin_by_feature: ]
[min_data_in_bin: 3]
[bin_construct_sample_cnt: 200000]
[data_random_seed: 175]
[is_enable_sparse: 1]
[enable_bundle: 1]
[use_missing: 1]
[zero_as_missing: 0]
[feature_pre_filter: 1]
[pre_partition: 0]
[two_round: 0]
[header: 0]
[label_column: ]
[weight_column: ]
[group_column: ]
[ignore_column: ]
[categorical_feature: ]
[forcedbins_filename: ]
[precise_float_parser: 0]
[parser_config_file: ]
[objective_seed: 16083]
[num_class: 1]
[is_unbalance: 1]
[scale_pos_weight: 1]
[sigmoid: 1]
[boost_from_average: 1]
[reg_sqrt: 0]
[alpha: 0.9]
[fair_c: 1]
[poisson_max_delta_step: 0.7]
[tweedie_variance_power: 1.5]
[lambdarank_truncation_level: 30]
[lambdarank_norm: 1]
[label_gain: ]
[lambdarank_position_bias_regularization: 0]
[eval_at: ]
[multi_error_top_k: 1]
[auc_mu_weights: ]
[num_machines: 1]
[local_listen_port: 12400]
[time_out: 120]
[machine_list_filename: ]
[machines: ]
[gpu_platform_id: -1]
[gpu_device_id: -1]
[gpu_use_dp: 0]
[num_gpu: 1]

end of parameters

pandas_categorical:[]
